{"learner":{"attributes":{},"gradient_booster":{"model":{"gbtree_model_param":{"num_trees":"2","size_leaf_vector":"0"},"tree_info":[0,0],"trees":[{"base_weights":[-9.53675687313079834e-01,-1.78553652763366699e+00,1.57104003429412842e+00,-1.83578956127166748e+00,7.15909481048583984e-01,1.07424283027648926e+00,1.89455437660217285e+00,-1.90882265567779541e+00,-1.14717280864715576e+00,1.01725375652313232e+00,-1.75000000000000000e+00,-1.89473688602447510e+00,1.19939184188842773e+00,1.76707899570465088e+00,1.98508393764495850e+00,-1.93661391735076904e+00,-1.18868243694305420e+00,-8.60201358795166016e-01,-1.97647058963775635e+00,7.84168422222137451e-01,1.25535440444946289e+00,7.92279720306396484e-01,1.66077721118927002e+00,1.81789433956146240e+00,-1.60000002384185791e+00,-1.96534836292266846e+00,-1.57917547225952148e+00,-6.36642634868621826e-01,-1.95918369293212891e+00,-6.16314470767974854e-01,-1.95555555820465088e+00,1.14877617359161377e+00,-1.60000002384185791e+00,1.15161263942718506e+00,-1.92857146263122559e+00,-1.66666662693023682e+00,1.75168120861053467e+00,1.87312805652618408e+00,1.25535440444946289e+00,-1.99915826320648193e+00,-1.75988411903381348e+00,-7.43510842323303223e-01,-1.98692810535430908e+00,-1.91304349899291992e+00,-1.87763459980487823e-02,-9.60745573043823242e-01,-3.31523001194000244e-01,1.32598900794982910e+00,-1.83333337306976318e+00,1.33436703681945801e+00,1.90362477302551270e+00,-1.60000002384185791e+00,1.76511359214782715e+00,-1.44898200035095215e+00,-1.99118947982788086e+00,-1.94117641448974609e+00,2.08719044923782349e-01,2.08719044923782349e-01,-1.66666662693023682e+00,-2.55049467086791992e-01,-1.66666662693023682e+00,1.23544585704803467e+00,1.91851449012756348e+00,-1.77777779102325439e+00,1.87777185440063477e+00,-3.28642398118972778e-01,-1.69599577784538269e-01,1.31101143360137939e+00,-1.60000002384185791e+00,1.72596585750579834e+00,1.12524676322937012e+00,1.51930642127990723e+00,7.95685291290283203e-01,1.76511359214782715e+00,1.25535440444946289e+00,5.61697483062744141e-01,1.04895532131195068e+00,-1.66666662693023682e+00,1.91851449012756348e+00,9.55268859863281250e-01,-1.66666662693023682e+00,-1.60000002384185791e+00,1.36940026283264160e+00],"default_left":[true,true,true,true,true,true,true,true,true,true,false,false,true,true,false,true,true,true,false,true,false,true,true,true,false,true,true,true,false,true,false,false,false,true,false,false,true,false,true,false,true,true,false,false,true,false,true,true,false,true,false,false,false,false,false,false,false,false,false,true,false,true,false,false,false,false,false,true,false,false,true,true,true,false,true,true,false,false,false,true,false,false,false],"id":0,"leaf_child_counts":[0,0,0,0,0,0,0,0,0,0,0,0,0,0,0,0,0,0,0,0,0,0,0,0,0,0,0,0,0,0,0,0,0,0,0,0,0,0,0,0,0,0,0,0,0,0,0,0,0,0,0,0,0,0,0,0,0,0,0,0,0,0,0,0,0,0,0,0,0,0,0,0,0,0,0,0,0,0,0,0,0,0,0],"left_children":[1,3,5,7,9,11,13,15,17,19,-1,-1,21,23,-1,25,27,29,-1,31,-1,33,35,37,-1,39,41,43,-1,45,-1,-1,-1,47,-1,-1,49,-1,51,-1,53,55,-1,-1,57,-1,59,61,-1,63,-1,-1,-1,-1,-1,-1,-1,-1,-1,65,-1,67,-1,-1,-1,-1,-1,69,-1,-1,71,73,75,-1,77,79,-1,-1,-1,81,-1,-1,-1],"loss_changes":[2.45915771484375000e+03,1.11022949218750000e+02,4.61383666992187500e+01,4.28703613281250000e+01,1.34655294418334961e+01,4.33133239746093750e+01,1.14770507812500000e+00,1.50383300781250000e+01,1.94248352050781250e+01,6.29215240478515625e-01,0.00000000000000000e+00,0.00000000000000000e+00,2.04345703125000000e+01,1.35823059082031250e+01,0.00000000000000000e+00,6.93505859375000000e+00,1.22937965393066406e+01,1.63705749511718750e+01,0.00000000000000000e+00,7.96672344207763672e+00,0.00000000000000000e+00,5.84369583129882812e+01,1.63342590332031250e+01,1.71553039550781250e+00,0.00000000000000000e+00,3.94067382812500000e+00,1.90994720458984375e+01,1.38996143341064453e+01,0.00000000000000000e+00,4.96305465698242188e+00,0.00000000000000000e+00,0.00000000000000000e+00,0.00000000000000000e+00,2.79094619750976562e+01,0.00000000000000000e+00,0.00000000000000000e+00,2.55683898925781250e+00,0.00000000000000000e+00,1.14567794799804688e+01,0.00000000000000000e+00,6.47982788085937500e+00,2.19250717163085938e+01,0.00000000000000000e+00,0.00000000000000000e+00,4.63662433624267578e+00,0.00000000000000000e+00,2.80592894554138184e+00,2.07393646240234375e+00,0.00000000000000000e+00,2.49709396362304688e+01,0.00000000000000000e+00,0.00000000000000000e+00,0.00000000000000000e+00,0.00000000000000000e+00,0.00000000000000000e+00,0.00000000000000000e+00,0.00000000000000000e+00,0.00000000000000000e+00,0.00000000000000000e+00,1.57566666603088379e-01,0.00000000000000000e+00,9.91259765625000000e+00,0.00000000000000000e+00,0.00000000000000000e+00,0.00000000000000000e+00,0.00000000000000000e+00,0.00000000000000000e+00,2.81491088867187500e+00,0.00000000000000000e+00,0.00000000000000000e+00,3.63199615478515625e+00,3.23371887207031250e-01,8.61468315124511719e-01,0.00000000000000000e+00,1.51118583679199219e+01,8.62979698181152344e+00,0.00000000000000000e+00,0.00000000000000000e+00,0.00000000000000000e+00,9.15748405456542969e+00,0.00000000000000000e+00,0.00000000000000000e+00,0.00000000000000000e+00],"parents":[2147483647,0,0,1,1,2,2,3,3,4,4,5,5,6,6,7,7,8,8,9,9,12,12,13,13,15,15,16,16,17,17,19,19,21,21,22,22,23,23,25,25,26,26,27,27,29,29,33,33,36,36,38,38,40,40,41,41,44,44,46,46,47,47,49,49,59,59,61,61,67,67,70,70,71,71,72,72,74,74,75,75,79,79],"right_children":[2,4,6,8,10,12,14,16,18,20,-1,-1,22,24,-1,26,28,30,-1,32,-1,34,36,38,-1,40,42,44,-1,46,-1,-1,-1,48,-1,-1,50,-1,52,-1,54,56,-1,-1,58,-1,60,62,-1,64,-1,-1,-1,-1,-1,-1,-1,-1,-1,66,-1,68,-1,-1,-1,-1,-1,70,-1,-1,72,74,76,-1,78,80,-1,-1,-1,82,-1,-1,-1],"split_conditions":[5.00000000000000000e-01,1.35000000000000000e+01,2.50000000000000000e+00,9.50000000000000000e+00,5.00000000000000000e-01,6.50000000000000000e+00,6.50000000000000000e+00,5.00000000000000000e-01,5.00000000000000000e-01,2.50000000000000000e+00,-2.62500000000000000e+00,-2.84210538864135742e+00,4.50000000000000000e+00,5.50000000000000000e+00,2.97762584686279297e+00,5.00000000000000000e-01,7.50000000000000000e+00,5.00000000000000000e-01,-2.96470594406127930e+00,5.00000000000000000e-01,1.88303160667419434e+00,2.50000000000000000e+00,1.05000000000000000e+01,5.00000000000000000e-01,-2.40000009536743164e+00,6.50000000000000000e+00,3.50000000000000000e+00,6.50000000000000000e+00,-2.93877553939819336e+00,1.05000000000000000e+01,-2.93333339691162109e+00,1.72316431999206543e+00,-2.40000009536743164e+00,5.00000000000000000e-01,-2.89285707473754883e+00,-2.50000000000000000e+00,5.00000000000000000e-01,2.80969214439392090e+00,3.50000000000000000e+00,-2.99873733520507812e+00,7.50000000000000000e+00,2.50000000000000000e+00,-2.98039221763610840e+00,-2.86956524848937988e+00,1.50000000000000000e+00,-1.44111835956573486e+00,1.25000000000000000e+01,1.55000000000000000e+01,-2.75000000000000000e+00,6.50000000000000000e+00,2.85543727874755859e+00,-2.40000009536743164e+00,2.64767026901245117e+00,-2.17347288131713867e+00,-2.98678421974182129e+00,-2.91176462173461914e+00,3.13078582286834717e-01,3.13078582286834717e-01,-2.50000000000000000e+00,1.15000000000000000e+01,-2.50000000000000000e+00,1.25000000000000000e+01,2.87777185440063477e+00,-2.66666674613952637e+00,2.81665778160095215e+00,-4.92963612079620361e-01,-2.54399359226226807e-01,5.00000000000000000e-01,-2.40000009536743164e+00,2.58894872665405273e+00,8.50000000000000000e+00,7.50000000000000000e+00,1.05000000000000000e+01,2.64767026901245117e+00,1.50000000000000000e+00,9.50000000000000000e+00,1.57343292236328125e+00,-2.50000000000000000e+00,2.87777185440063477e+00,1.50000000000000000e+00,-2.50000000000000000e+00,-2.40000009536743164e+00,2.05410051345825195e+00],"split_indices":[3,0,3,0,4,0,2,2,2,2,0,0,2,2,0,4,0,4,0,2,0,2,0,4,0,0,0,0,0,0,0,0,0,4,0,0,4,0,3,0,0,0,0,0,2,0,0,0,0,2,0,0,0,0,0,0,0,0,0,0,0,0,0,0,0,0,0,2,0,0,0,0,0,0,2,0,0,0,0,2,0,0,0],"sum_hessian":[1.17032531738281250e+03,8.80338500976562500e+02,2.89986846923828125e+02,8.63066406250000000e+02,1.72721290588378906e+01,1.14790969848632812e+02,1.75195877075195312e+02,7.79908203125000000e+02,8.31581954956054688e+01,1.55221290588378906e+01,1.75000000000000000e+00,4.50000000000000000e+00,1.10290969848632812e+02,7.48827743530273438e+01,1.00313095092773438e+02,7.50522155761718750e+02,2.93860645294189453e+01,6.21581954956054688e+01,2.10000000000000000e+01,8.38606452941894531e+00,7.13606452941894531e+00,5.89524536132812500e+01,5.13385162353515625e+01,7.38827743530273438e+01,1.00000000000000000e+00,6.93636047363281250e+02,5.68860626220703125e+01,1.73860645294189453e+01,1.20000000000000000e+01,5.11581954956054688e+01,1.10000000000000000e+01,7.38606452941894531e+00,1.00000000000000000e+00,5.22024536132812500e+01,6.75000000000000000e+00,1.25000000000000000e+00,5.00885162353515625e+01,6.67467117309570312e+01,7.13606452941894531e+00,5.93750000000000000e+02,9.98860626220703125e+01,1.88860645294189453e+01,3.80000000000000000e+01,5.50000000000000000e+00,1.18860645294189453e+01,2.28860645294189453e+01,2.82721290588378906e+01,4.94524536132812500e+01,2.75000000000000000e+00,1.40221290588378906e+01,3.60663871765136719e+01,1.00000000000000000e+00,6.13606452941894531e+00,4.33860626220703125e+01,5.65000000000000000e+01,8.25000000000000000e+00,1.06360645294189453e+01,1.06360645294189453e+01,1.25000000000000000e+00,2.70221290588378906e+01,1.25000000000000000e+00,4.35663871765136719e+01,5.88606452941894531e+00,2.00000000000000000e+00,1.20221290588378906e+01,1.41360645294189453e+01,1.28860645294189453e+01,4.25663871765136719e+01,1.00000000000000000e+00,1.25221290588378906e+01,3.00442581176757812e+01,1.32721290588378906e+01,1.67721290588378906e+01,6.13606452941894531e+00,7.13606452941894531e+00,9.13606452941894531e+00,7.63606452941894531e+00,1.25000000000000000e+00,5.88606452941894531e+00,7.88606452941894531e+00,1.25000000000000000e+00,1.00000000000000000e+00,6.88606452941894531e+00],"tree_param":{"num_deleted":"0","num_feature":"6","num_nodes":"83","size_leaf_vector":"0"}},{"base_weights":[-3.72105747461318970e-01,-9.35951352119445801e-01,8.33977088332176208e-02,-9.69075679779052734e-01,6.12637519836425781e-01,-6.67790845036506653e-02,8.82603943347930908e-01,-1.04759502410888672e+00,-4.03459310531616211e-01,2.51874268054962158e-01,8.84853661060333252e-01,-9.96776893734931946e-02,9.94521856307983398e-01,5.59802889823913574e-01,9.83559668064117432e-01,-2.23201185464859009e-01,-9.79085266590118408e-01,-1.32033243775367737e-01,8.74786615371704102e-01,-3.48529726266860962e-01,8.14392566680908203e-01,6.95441722869873047e-01,1.03390347957611084e+00,-9.12981092929840088e-01,-9.69798713922500610e-02,-1.65639102458953857e-01,7.37333238124847412e-01,9.90914583206176758e-01,2.21626266837120056e-01,9.42382812500000000e-01,1.36877551674842834e-01,-6.07948563992977142e-02,-7.12123692035675049e-01,4.95784223079681396e-01,8.57515215873718262e-01,7.41405785083770752e-03,-1.01435923576354980e+00,-3.36798936128616333e-01,-1.23323142528533936e+00,-2.45571117848157883e-02,9.80550110340118408e-01,-9.21146810054779053e-01,-2.15851634740829468e-01,-3.28452348709106445e+00,-3.59145760536193848e-01,1.92804962396621704e-01,-1.18595182895660400e-01,-4.13792699575424194e-01,-3.31541858613491058e-02,3.74192357063293457e-01,-6.80565416812896729e-01,3.00944924354553223e-01,4.35451641678810120e-02,-1.03168809413909912e+00,1.00747793912887573e-01,1.67209714651107788e-01,-6.44335925579071045e-01,8.23021531105041504e-01,-3.52497935295104980e-01,-9.69798713922500610e-02,9.13719713687896729e-01,1.61744654178619385e-01,-4.98996257781982422e-01,4.41415667533874512e-01,-9.51285779476165771e-01,2.12644487619400024e-01,-2.01238885521888733e-01,3.51837664842605591e-01,1.38319507241249084e-01,-9.21580731868743896e-01,1.54380187392234802e-01,1.19497224688529968e-01,3.87315243482589722e-01,1.55072510242462158e-01,7.98750743269920349e-02],"default_left":[true,true,true,true,true,true,true,false,true,false,false,true,false,true,true,true,false,true,false,false,true,true,false,false,false,true,true,false,false,false,false,true,true,false,false,true,false,true,true,true,false,false,true,false,true,true,true,true,true,false,false,false,true,false,true,false,false,false,true,false,false,true,false,false,false,true,true,false,true,false,false,true,false,false,false],"id":1,"leaf_child_counts":[0,0,0,0,0,0,0,0,0,0,0,0,0,0,0,0,0,0,0,0,0,0,0,0,0,0,0,0,0,0,0,0,0,0,0,0,0,0,0,0,0,0,0,0,0,0,0,0,0,0,0,0,0,0,0,0,0,0,0,0,0,0,0,0,0,0,0,0,0,0,0,0,0,0,0],"left_children":[1,3,5,7,9,11,13,-1,15,-1,-1,17,-1,19,21,23,-1,25,-1,-1,27,29,-1,-1,-1,31,33,-1,-1,-1,-1,35,37,-1,-1,39,-1,41,43,45,-1,-1,47,-1,49,51,53,55,57,-1,-1,-1,59,-1,61,-1,-1,-1,63,-1,-1,65,-1,-1,-1,67,69,-1,71,-1,-1,73,-1,-1,-1],"loss_changes":[7.33746795654296875e+01,6.69628906250000000e+00,1.90040092468261719e+01,5.44903564453125000e+00,2.21850037574768066e-01,4.68318796157836914e+00,6.78518295288085938e-01,0.00000000000000000e+00,1.56951832771301270e+00,0.00000000000000000e+00,0.00000000000000000e+00,4.11620807647705078e+00,0.00000000000000000e+00,1.58493733406066895e+00,9.21783447265625000e-02,1.04387283325195312e+00,0.00000000000000000e+00,3.70258045196533203e+00,0.00000000000000000e+00,0.00000000000000000e+00,4.88006114959716797e-01,4.57724094390869141e-01,0.00000000000000000e+00,0.00000000000000000e+00,0.00000000000000000e+00,6.93419742584228516e+00,3.08380126953125000e-02,0.00000000000000000e+00,0.00000000000000000e+00,0.00000000000000000e+00,0.00000000000000000e+00,6.63450527191162109e+00,3.70778846740722656e+00,0.00000000000000000e+00,0.00000000000000000e+00,2.97462868690490723e+00,0.00000000000000000e+00,7.75268793106079102e-01,1.41667623519897461e+01,1.89899528026580811e+00,0.00000000000000000e+00,0.00000000000000000e+00,3.58116000890731812e-01,0.00000000000000000e+00,1.46291637420654297e+00,4.49743270874023438e-01,1.30058231353759766e+01,6.66772305965423584e-01,1.56831109523773193e+00,0.00000000000000000e+00,0.00000000000000000e+00,0.00000000000000000e+00,1.49976480007171631e+00,0.00000000000000000e+00,1.94014632701873779e+00,0.00000000000000000e+00,0.00000000000000000e+00,0.00000000000000000e+00,2.08238935470581055e+00,0.00000000000000000e+00,0.00000000000000000e+00,8.94340395927429199e-01,0.00000000000000000e+00,0.00000000000000000e+00,0.00000000000000000e+00,4.23036217689514160e-01,1.57520115375518799e+00,0.00000000000000000e+00,1.18884563446044922e-01,0.00000000000000000e+00,0.00000000000000000e+00,3.38914394378662109e-02,0.00000000000000000e+00,0.00000000000000000e+00,0.00000000000000000e+00],"parents":[2147483647,0,0,1,1,2,2,3,3,4,4,5,5,6,6,8,8,11,11,13,13,14,14,15,15,17,17,20,20,21,21,25,25,26,26,31,31,32,32,35,35,37,37,38,38,39,39,42,42,44,44,45,45,46,46,47,47,48,48,52,52,54,54,58,58,61,61,65,65,66,66,68,68,71,71],"right_children":[2,4,6,8,10,12,14,-1,16,-1,-1,18,-1,20,22,24,-1,26,-1,-1,28,30,-1,-1,-1,32,34,-1,-1,-1,-1,36,38,-1,-1,40,-1,42,44,46,-1,-1,48,-1,50,52,54,56,58,-1,-1,-1,60,-1,62,-1,-1,-1,64,-1,-1,66,-1,-1,-1,68,70,-1,72,-1,-1,74,-1,-1,-1],"split_conditions":[6.50000000000000000e+00,2.50000000000000000e+00,6.50000000000000000e+00,5.00000000000000000e-01,4.00000000000000000e+00,5.50000000000000000e+00,2.50000000000000000e+00,-1.57139253616333008e+00,3.50000000000000000e+00,3.77811402082443237e-01,1.32728052139282227e+00,1.55000000000000000e+01,1.49178278446197510e+00,1.35000000000000000e+01,1.25000000000000000e+01,2.50000000000000000e+00,-1.46862792968750000e+00,2.50000000000000000e+00,1.31217992305755615e+00,-5.22794604301452637e-01,1.45000000000000000e+01,1.50000000000000000e+00,1.55085515975952148e+00,-1.36947166919708252e+00,-1.45469814538955688e-01,1.50000000000000000e+00,1.30000000000000000e+01,1.48637187480926514e+00,3.32439392805099487e-01,1.41357421875000000e+00,2.05316334962844849e-01,5.00000000000000000e-01,1.05000000000000000e+01,7.43676304817199707e-01,1.28627276420593262e+00,1.50000000000000000e+00,-1.52153885364532471e+00,5.00000000000000000e-01,1.25000000000000000e+01,7.50000000000000000e+00,1.47082519531250000e+00,-1.38172018527984619e+00,2.50000000000000000e+00,-4.92678546905517578e+00,1.35000000000000000e+01,5.00000000000000000e-01,9.50000000000000000e+00,8.50000000000000000e+00,7.50000000000000000e+00,5.61288535594940186e-01,-1.02084815502166748e+00,4.51417386531829834e-01,5.00000000000000000e-01,-1.54753208160400391e+00,1.25000000000000000e+01,2.50814557075500488e-01,-9.66503858566284180e-01,1.23453235626220703e+00,3.50000000000000000e+00,-1.45469814538955688e-01,1.37057960033416748e+00,5.00000000000000000e-01,-7.48494386672973633e-01,6.62123501300811768e-01,-1.42692863941192627e+00,1.05000000000000000e+01,5.00000000000000000e-01,5.27756512165069580e-01,5.00000000000000000e-01,-1.38237106800079346e+00,2.31570273637771606e-01,1.15000000000000000e+01,5.80972850322723389e-01,2.32608765363693237e-01,1.19812607765197754e-01],"split_indices":[0,3,2,4,2,3,3,0,0,0,0,0,0,0,0,0,0,4,0,0,0,4,0,0,0,2,0,0,0,0,0,4,0,0,0,3,0,3,0,0,0,0,2,0,0,2,0,0,0,0,0,0,3,0,0,0,0,0,2,0,0,2,0,0,0,0,3,0,3,0,0,0,0,0,0],"sum_hessian":[2.85363555908203125e+02,1.27398918151855469e+02,1.57964645385742188e+02,1.24822517395019531e+02,2.57639741897583008e+00,1.33170104980468750e+02,2.47945404052734375e+01,1.09419746398925781e+02,1.54027757644653320e+01,1.31498670578002930e+00,1.26141059398651123e+00,1.29385864257812500e+02,3.78423166275024414e+00,6.29686784744262695e+00,1.84976730346679688e+01,1.19938287734985352e+01,3.40894675254821777e+00,1.25437057495117188e+02,3.94881343841552734e+00,1.35833048820495605e+00,4.93853712081909180e+00,3.30225968360900879e+00,1.51954126358032227e+01,1.61419713497161865e+00,1.03796319961547852e+01,1.20963508605957031e+02,4.47354507446289062e+00,3.67594480514526367e+00,1.26259243488311768e+00,2.17077326774597168e+00,1.13148653507232666e+00,1.01725135803222656e+02,1.92383728027343750e+01,1.91200387477874756e+00,2.56154108047485352e+00,9.51659317016601562e+01,6.55920791625976562e+00,1.14227695465087891e+01,7.81560373306274414e+00,9.23747634887695312e+01,2.79116630554199219e+00,1.67518961429595947e+00,9.74757957458496094e+00,2.12926268577575684e+00,5.68634128570556641e+00,2.78164710998535156e+01,6.45582885742187500e+01,4.52682542800903320e+00,5.22075366973876953e+00,1.72030854225158691e+00,3.96603274345397949e+00,1.59827632904052734e+01,1.18337068557739258e+01,1.23250436782836914e+01,5.22332496643066406e+01,1.30548715591430664e+00,3.22133851051330566e+00,1.31116127967834473e+00,3.90959262847900391e+00,1.03796319961547852e+01,1.45407545566558838e+00,4.75770149230957031e+01,4.65623426437377930e+00,1.70916712284088135e+00,2.20042538642883301e+00,4.18167495727539062e+01,5.76026296615600586e+00,1.42313470840454102e+01,2.75854034423828125e+01,1.77234041690826416e+00,3.98792266845703125e+00,2.59906749725341797e+01,1.59472918510437012e+00,1.33108758926391602e+01,1.26797981262207031e+01],"tree_param":{"num_deleted":"0","num_feature":"6","num_nodes":"75","size_leaf_vector":"0"}}]},"name":"gbtree"},"learner_model_param":{"base_score":"0.500000","num_class":"0","num_feature":"6"},"objective":{"name":"binary:logistic","reg_loss_param":{"scale_pos_weight":"23.5442581"}}},"version":[1,1,1]}