{"learner":{"attributes":{},"gradient_booster":{"model":{"gbtree_model_param":{"num_trees":"2","size_leaf_vector":"0"},"tree_info":[0,0],"trees":[{"base_weights":[-9.47305977344512939e-01,-1.88812267780303955e+00,1.63031947612762451e+00,-1.94285273551940918e+00,1.00795483589172363e+00,5.09507179260253906e-01,1.93349385261535645e+00,-1.97019445896148682e+00,-1.20865893363952637e+00,4.15360897779464722e-01,1.95743691921234131e+00,-1.98181819915771484e+00,1.18503224849700928e+00,1.81017637252807617e+00,1.96632206439971924e+00,-1.99957287311553955e+00,-1.88056659698486328e+00,-7.43444561958312988e-01,-1.97727274894714355e+00,1.20674800872802734e+00,-1.89999997615814209e+00,2.40733653306961060e-01,1.42403244972229004e+00,-1.66666662693023682e+00,1.85711038112640381e+00,-1.55933332443237305e+00,-1.99823939800262451e+00,-5.00218987464904785e-01,-1.91999995708465576e+00,-1.60000002384185791e+00,1.44433271884918213e+00,1.50933337211608887e+00,-1.93548381328582764e+00,1.46697580814361572e+00,-1.60000002384185791e+00,1.58130717277526855e+00,1.97841215133666992e+00,-1.53158271312713623e+00,-1.92307686805725098e+00,-8.53847503662109375e-01,1.85817405581474304e-01,1.21378171443939209e+00,1.88232612609863281e+00,1.72574639320373535e+00,-1.66666662693023682e+00,-1.50542044639587402e+00,-1.90909087657928467e+00,-2.26643234491348267e-01,-1.93333327770233154e+00,9.37319695949554443e-01,-1.83333337306976318e+00,1.59731745719909668e+00,-4.18976657092571259e-02,1.56401145458221436e+00,1.95743691921234131e+00,1.79447472095489502e+00,-1.77777779102325439e+00,-1.86666667461395264e+00,7.64508545398712158e-01,1.79587316513061523e+00,1.13317644596099854e+00,1.57683467864990234e+00,1.89471280574798584e+00,1.24123728275299072e+00,-1.66666662693023682e+00,1.91664779186248779e+00,-1.71428573131561279e+00],"default_left":[true,true,true,true,true,true,true,true,true,true,false,false,true,true,false,false,true,true,false,true,false,true,true,false,true,true,false,true,false,false,false,false,false,true,false,true,false,true,false,true,true,true,false,true,false,false,false,false,false,false,false,true,true,true,false,true,false,false,true,false,true,false,false,false,false,false,false],"id":0,"leaf_child_counts":[0,0,0,0,0,0,0,0,0,0,0,0,0,0,0,0,0,0,0,0,0,0,0,0,0,0,0,0,0,0,0,0,0,0,0,0,0,0,0,0,0,0,0,0,0,0,0,0,0,0,0,0,0,0,0,0,0,0,0,0,0,0,0,0,0,0,0],"left_children":[1,3,5,7,9,11,13,15,17,19,-1,-1,21,23,-1,-1,25,27,-1,29,-1,31,33,-1,35,37,-1,39,-1,-1,-1,-1,-1,41,-1,43,-1,45,-1,47,49,51,-1,53,-1,-1,-1,-1,-1,-1,-1,55,57,59,-1,61,-1,-1,63,-1,65,-1,-1,-1,-1,-1,-1],"loss_changes":[5.45805712890625000e+03,2.61819335937500000e+02,2.04270507812500000e+02,3.18896484375000000e+01,1.70953998565673828e+01,2.16814559936523438e+02,1.02758789062500000e+00,3.16650390625000000e+00,2.06387710571289062e+01,3.58409042358398438e+01,0.00000000000000000e+00,0.00000000000000000e+00,2.27608795166015625e+01,1.75369873046875000e+01,0.00000000000000000e+00,0.00000000000000000e+00,1.39346923828125000e+01,1.03473491668701172e+01,0.00000000000000000e+00,1.02451076507568359e+01,0.00000000000000000e+00,5.80083694458007812e+01,1.10710296630859375e+01,0.00000000000000000e+00,2.61282348632812500e+00,3.28552246093750000e-01,0.00000000000000000e+00,7.55966901779174805e+00,0.00000000000000000e+00,0.00000000000000000e+00,0.00000000000000000e+00,0.00000000000000000e+00,0.00000000000000000e+00,7.81394958496093750e+00,0.00000000000000000e+00,1.58454666137695312e+01,0.00000000000000000e+00,2.61718750000000000e-01,0.00000000000000000e+00,1.37692289352416992e+01,1.67395553588867188e+01,2.42124481201171875e+01,0.00000000000000000e+00,3.96034240722656250e-01,0.00000000000000000e+00,0.00000000000000000e+00,0.00000000000000000e+00,0.00000000000000000e+00,0.00000000000000000e+00,0.00000000000000000e+00,0.00000000000000000e+00,2.64109725952148438e+01,1.80128345489501953e+01,1.43876647949218750e+00,0.00000000000000000e+00,4.91867065429687500e-02,0.00000000000000000e+00,0.00000000000000000e+00,1.03672008514404297e+01,0.00000000000000000e+00,1.75501785278320312e+01,0.00000000000000000e+00,0.00000000000000000e+00,0.00000000000000000e+00,0.00000000000000000e+00,0.00000000000000000e+00,0.00000000000000000e+00],"parents":[2147483647,0,0,1,1,2,2,3,3,4,4,5,5,6,6,7,7,8,8,9,9,12,12,13,13,16,16,17,17,19,19,21,21,22,22,24,24,25,25,27,27,33,33,35,35,37,37,39,39,40,40,41,41,43,43,51,51,52,52,53,53,55,55,58,58,60,60],"right_children":[2,4,6,8,10,12,14,16,18,20,-1,-1,22,24,-1,-1,26,28,-1,30,-1,32,34,-1,36,38,-1,40,-1,-1,-1,-1,-1,42,-1,44,-1,46,-1,48,50,52,-1,54,-1,-1,-1,-1,-1,-1,-1,56,58,60,-1,62,-1,-1,64,-1,66,-1,-1,-1,-1,-1,-1],"split_conditions":[5.00000000000000000e-01,4.50000000000000000e+00,2.50000000000000000e+00,1.25000000000000000e+01,1.90000000000000000e+01,9.50000000000000000e+00,3.50000000000000000e+00,6.50000000000000000e+00,5.00000000000000000e-01,1.25000000000000000e+01,2.93615531921386719e+00,-2.97272729873657227e+00,1.15000000000000000e+01,7.50000000000000000e+00,2.94948315620422363e+00,-2.99935936927795410e+00,7.50000000000000000e+00,5.00000000000000000e-01,-2.96590900421142578e+00,1.05000000000000000e+01,-2.84999990463256836e+00,5.00000000000000000e-01,2.50000000000000000e+00,-2.50000000000000000e+00,5.50000000000000000e+00,5.00000000000000000e-01,-2.99735903739929199e+00,1.45000000000000000e+01,-2.87999987602233887e+00,-2.40000009536743164e+00,2.16649913787841797e+00,2.26399993896484375e+00,-2.90322566032409668e+00,7.50000000000000000e+00,-2.40000009536743164e+00,4.50000000000000000e+00,2.96761822700500488e+00,5.00000000000000000e-01,-2.88461542129516602e+00,1.35000000000000000e+01,1.55000000000000000e+01,3.50000000000000000e+00,2.82348918914794922e+00,2.50000000000000000e+00,-2.50000000000000000e+00,-2.25813055038452148e+00,-2.86363625526428223e+00,-3.39964866638183594e-01,-2.89999985694885254e+00,1.40597951412200928e+00,-2.75000000000000000e+00,1.35000000000000000e+01,5.00000000000000000e-01,1.00000000000000000e+01,2.93615531921386719e+00,1.25000000000000000e+01,-2.66666674613952637e+00,-2.79999995231628418e+00,1.50000000000000000e+00,2.69380974769592285e+00,1.50000000000000000e+00,2.36525201797485352e+00,2.84206914901733398e+00,1.86185598373413086e+00,-2.50000000000000000e+00,2.87497162818908691e+00,-2.57142853736877441e+00],"split_indices":[3,2,3,0,0,0,3,0,2,0,0,0,0,0,0,0,0,4,0,0,0,2,4,0,2,2,0,0,0,0,0,0,0,2,0,2,0,4,0,0,0,2,0,4,0,0,0,0,0,0,0,0,4,0,0,0,0,0,3,0,2,0,0,0,0,0,0],"sum_hessian":[2.25011010742187500e+03,1.64848913574218750e+03,6.01621032714843750e+02,1.61799462890625000e+03,3.04945697784423828e+01,1.28230987548828125e+02,4.73390045166015625e+02,1.55949731445312500e+03,5.84972839355468750e+01,1.89972839355468750e+01,1.14972848892211914e+01,2.72500000000000000e+01,1.00980995178222656e+02,1.02476921081542969e+02,3.70913116455078125e+02,1.17050000000000000e+03,3.88997283935546875e+02,3.67472839355468750e+01,2.17500000000000000e+01,1.42472848892211914e+01,4.75000000000000000e+00,2.04972839355468750e+01,8.04837112426757812e+01,1.25000000000000000e+00,1.01226921081542969e+02,1.05247283935546875e+02,2.83750000000000000e+02,3.07472839355468750e+01,6.00000000000000000e+00,1.00000000000000000e+00,1.32472848892211914e+01,1.29972848892211914e+01,7.50000000000000000e+00,7.94837112426757812e+01,1.00000000000000000e+00,3.19932117462158203e+01,6.92337112426757812e+01,9.89972839355468750e+01,6.25000000000000000e+00,2.02486419677734375e+01,1.04986419677734375e+01,4.99904975891113281e+01,2.94932117462158203e+01,3.07432117462158203e+01,1.25000000000000000e+00,9.37472839355468750e+01,5.25000000000000000e+00,1.29986419677734375e+01,7.25000000000000000e+00,7.74864244461059570e+00,2.75000000000000000e+00,3.82418556213378906e+01,1.17486419677734375e+01,1.92459278106689453e+01,1.14972848892211914e+01,3.62418556213378906e+01,2.00000000000000000e+00,3.50000000000000000e+00,8.24864196777343750e+00,1.19972848892211914e+01,7.24864244461059570e+00,1.27472848892211914e+01,2.34945697784423828e+01,6.99864244461059570e+00,1.25000000000000000e+00,5.74864244461059570e+00,1.50000000000000000e+00],"tree_param":{"num_deleted":"0","num_feature":"6","num_nodes":"67","size_leaf_vector":"0"}},{"base_weights":[-4.51305001974105835e-01,-8.02768111228942871e-01,7.99453198909759521e-01,-1.04860877990722656e+00,-4.23524707555770874e-01,1.86860650777816772e-01,8.58486771583557129e-01,2.14743658900260925e-01,-6.37348651885986328e-01,-9.15082514286041260e-01,4.65559422969818115e-01,3.89497458934783936e-01,9.28802788257598877e-01,2.68888890743255615e-01,-8.98996949195861816e-01,-9.11795616149902344e-01,-1.35983660817146301e-01,9.58241343498229980e-01,1.81740522384643555e-01,-6.12964451313018799e-01,6.84878885746002197e-01,8.84952962398529053e-01,1.03960716724395752e+00,3.12425196170806885e-01,-8.57223749160766602e-01,-1.02639245986938477e+00,-3.53071361780166626e-01,-1.21056940406560898e-02,-1.82746803760528564e+00,-5.22551894187927246e-01,5.92127501964569092e-01,8.67191076278686523e-01,2.13778868317604065e-01,8.46324563026428223e-01,1.02871370315551758e+00,-8.97310376167297363e-01,-1.35989904403686523e+00,3.29775549471378326e-02,-6.99490904808044434e-01,-2.44403213262557983e-01,6.98611438274383545e-01,-8.81728768348693848e-01,-2.60464763641357422e+00,3.15996140241622925e-01,8.78856658935546875e-01,9.95162665843963623e-01,5.41380763053894043e-01,-2.59840548038482666e-01,7.03218519687652588e-01,7.99611032009124756e-01,1.02305412292480469e+00,-1.04253053665161133e+00,4.11623232066631317e-02,-1.45475184917449951e+00,-9.80795145034790039e-01,-8.95438253879547119e-01,3.89462083578109741e-01,-1.03994168341159821e-01,-1.30234873294830322e+00,-7.67869427800178528e-02,-1.21443212032318115e+00,8.51102471351623535e-01,3.36946874856948853e-01,8.76590728759765625e-01,4.22356128692626953e-01,-8.58119606971740723e-01,3.03617030382156372e-01,1.81142598390579224e-01,-5.94843327999114990e-01,6.01604700088500977e-01,1.05668616294860840e+00,8.10040891170501709e-01,1.02296566963195801e+00,-6.14093840122222900e-01,9.95162665843963623e-01,9.32255387306213379e-02,5.89272618293762207e-01,-9.20026242733001709e-01,-4.64025229215621948e-01,3.29480797052383423e-01,8.78856658935546875e-01,9.07294034957885742e-01,6.94521784782409668e-01,7.16303810477256775e-02,-1.18099105358123779e+00,8.91366302967071533e-01,3.64100009202957153e-01,9.43856835365295410e-01,-2.19079479575157166e-01],"default_left":[true,true,true,false,true,true,true,true,true,false,true,true,true,true,false,true,true,false,true,false,true,true,false,false,false,true,true,true,true,false,true,true,true,true,false,true,true,true,true,true,true,false,false,false,false,false,false,false,false,true,false,false,true,false,false,false,false,false,false,true,false,true,false,true,true,false,false,true,true,true,false,true,false,true,false,false,false,false,false,false,false,false,true,false,false,false,true,false,false],"id":1,"leaf_child_counts":[0,0,0,0,0,0,0,0,0,0,0,0,0,0,0,0,0,0,0,0,0,0,0,0,0,0,0,0,0,0,0,0,0,0,0,0,0,0,0,0,0,0,0,0,0,0,0,0,0,0,0,0,0,0,0,0,0,0,0,0,0,0,0,0,0,0,0,0,0,0,0,0,0,0,0,0,0,0,0,0,0,0,0,0,0,0,0,0,0],"left_children":[1,3,5,-1,7,9,11,13,15,-1,17,19,21,23,-1,25,27,-1,29,-1,31,33,-1,-1,-1,35,37,39,41,-1,43,45,47,49,-1,51,53,55,57,59,61,-1,-1,-1,-1,-1,-1,-1,-1,63,-1,-1,65,-1,-1,-1,-1,-1,-1,67,-1,69,-1,71,73,-1,-1,75,77,79,-1,81,-1,83,-1,-1,-1,-1,-1,-1,-1,-1,85,-1,-1,-1,87,-1,-1],"loss_changes":[1.99106842041015625e+02,3.28392486572265625e+01,3.55455780029296875e+00,0.00000000000000000e+00,1.90612239837646484e+01,2.88784813880920410e+00,2.89711761474609375e+00,2.18142890930175781e+00,1.43471183776855469e+01,0.00000000000000000e+00,9.90388154983520508e-01,3.73003482818603516e+00,1.51901245117187500e-01,1.72080922126770020e+00,0.00000000000000000e+00,4.23031234741210938e+00,7.80160760879516602e+00,0.00000000000000000e+00,1.52250289916992188e+00,0.00000000000000000e+00,7.75953769683837891e-01,1.04408264160156250e-01,0.00000000000000000e+00,0.00000000000000000e+00,0.00000000000000000e+00,2.10003280639648438e+00,1.59276342391967773e+00,5.81583547592163086e+00,1.29338550567626953e+00,0.00000000000000000e+00,1.89974904060363770e-01,1.49709701538085938e-01,7.41833329200744629e-01,1.84520721435546875e-01,0.00000000000000000e+00,5.60023498535156250e+00,1.86443328857421875e-01,2.02369761466979980e+00,2.21550607681274414e+00,4.29179811477661133e+00,4.06938552856445312e-01,0.00000000000000000e+00,0.00000000000000000e+00,0.00000000000000000e+00,0.00000000000000000e+00,0.00000000000000000e+00,0.00000000000000000e+00,0.00000000000000000e+00,0.00000000000000000e+00,1.02307510375976562e+00,0.00000000000000000e+00,0.00000000000000000e+00,1.41906559467315674e+00,0.00000000000000000e+00,0.00000000000000000e+00,0.00000000000000000e+00,0.00000000000000000e+00,0.00000000000000000e+00,0.00000000000000000e+00,3.08635687828063965e+00,0.00000000000000000e+00,1.45795345306396484e-01,0.00000000000000000e+00,1.01373672485351562e-01,4.30432558059692383e+00,0.00000000000000000e+00,0.00000000000000000e+00,5.41616261005401611e-01,2.19499349594116211e-01,1.73888325691223145e-01,0.00000000000000000e+00,1.00577354431152344e-01,0.00000000000000000e+00,1.04883384704589844e+00,0.00000000000000000e+00,0.00000000000000000e+00,0.00000000000000000e+00,0.00000000000000000e+00,0.00000000000000000e+00,0.00000000000000000e+00,0.00000000000000000e+00,0.00000000000000000e+00,6.71215057373046875e-01,0.00000000000000000e+00,0.00000000000000000e+00,0.00000000000000000e+00,1.65464735031127930e+00,0.00000000000000000e+00,0.00000000000000000e+00],"parents":[2147483647,0,0,1,1,2,2,4,4,5,5,6,6,7,7,8,8,10,10,11,11,12,12,13,13,15,15,16,16,18,18,20,20,21,21,25,25,26,26,27,27,28,28,30,30,31,31,32,32,33,33,35,35,36,36,37,37,38,38,39,39,40,40,49,49,52,52,59,59,61,61,63,63,64,64,67,67,68,68,69,69,71,71,73,73,82,82,86,86],"right_children":[2,4,6,-1,8,10,12,14,16,-1,18,20,22,24,-1,26,28,-1,30,-1,32,34,-1,-1,-1,36,38,40,42,-1,44,46,48,50,-1,52,54,56,58,60,62,-1,-1,-1,-1,-1,-1,-1,-1,64,-1,-1,66,-1,-1,-1,-1,-1,-1,68,-1,70,-1,72,74,-1,-1,76,78,80,-1,82,-1,84,-1,-1,-1,-1,-1,-1,-1,-1,86,-1,-1,-1,88,-1,-1],"split_conditions":[1.50000000000000000e+00,6.50000000000000000e+00,2.50000000000000000e+00,-1.57291316986083984e+00,7.50000000000000000e+00,1.15000000000000000e+01,2.50000000000000000e+00,5.00000000000000000e-01,1.25000000000000000e+01,-1.37262380123138428e+00,1.50000000000000000e+00,8.50000000000000000e+00,1.45000000000000000e+01,5.00000000000000000e-01,-1.34849548339843750e+00,2.50000000000000000e+00,1.50000000000000000e+00,1.43736195564270020e+00,1.35000000000000000e+01,-9.19446706771850586e-01,5.00000000000000000e-01,6.50000000000000000e+00,1.55941081047058105e+00,4.68637794256210327e-01,-1.28583562374114990e+00,1.05000000000000000e+01,3.50000000000000000e+00,5.50000000000000000e+00,1.50000000000000000e+00,-7.83827841281890869e-01,1.00000000000000000e+01,4.50000000000000000e+00,1.05000000000000000e+01,1.50000000000000000e+00,1.54307055473327637e+00,5.00000000000000000e-01,5.00000000000000000e-01,5.00000000000000000e-01,1.15000000000000000e+01,5.00000000000000000e-01,1.45000000000000000e+01,-1.32259321212768555e+00,-3.90697145462036133e+00,4.73994195461273193e-01,1.31828498840332031e+00,1.49274396896362305e+00,8.12071144580841064e-01,-3.89760822057723999e-01,1.05482780933380127e+00,5.00000000000000000e-01,1.53458118438720703e+00,-1.56379580497741699e+00,9.50000000000000000e+00,-2.18212771415710449e+00,-1.47119271755218506e+00,-1.34315741062164307e+00,5.84193110466003418e-01,-1.55991256237030029e-01,-1.95352315902709961e+00,1.35000000000000000e+01,-1.82164812088012695e+00,5.00000000000000000e-01,5.05420327186584473e-01,7.50000000000000000e+00,1.00000000000000000e+01,-1.28717947006225586e+00,4.55425560474395752e-01,5.00000000000000000e-01,1.45000000000000000e+01,1.00000000000000000e+01,1.58502924442291260e+00,1.05000000000000000e+01,1.53444850444793701e+00,1.25000000000000000e+01,1.49274396896362305e+00,1.39838308095932007e-01,8.83908927440643311e-01,-1.38003933429718018e+00,-6.96037828922271729e-01,4.94221210479736328e-01,1.31828498840332031e+00,1.36094105243682861e+00,3.50000000000000000e+00,1.07445567846298218e-01,-1.77148652076721191e+00,1.33704948425292969e+00,5.50000000000000000e+00,1.41578531265258789e+00,-3.28619211912155151e-01],"split_indices":[3,0,3,0,0,0,2,2,0,0,2,0,0,4,0,2,4,0,0,0,2,3,0,0,0,0,2,2,2,0,2,3,0,4,0,3,4,3,0,2,0,0,0,0,0,0,0,0,0,4,0,0,0,0,0,0,0,0,0,0,0,4,0,2,2,0,0,3,0,2,0,0,0,0,0,0,0,0,0,0,0,0,3,0,0,0,2,0,0],"sum_hessian":[4.52317077636718750e+02,3.53166748046875000e+02,9.91503295898437500e+01,2.14001312255859375e+02,1.39165435791015625e+02,8.80649471282958984e+00,9.03438339233398438e+01,3.49218864440917969e+01,1.04243545532226562e+02,1.66246104240417480e+00,7.14403390884399414e+00,1.19924097061157227e+01,7.83514251708984375e+01,3.34836959838867188e+01,1.43818879127502441e+00,6.72346649169921875e+01,3.70088844299316406e+01,2.39408159255981445e+00,4.74995231628417969e+00,2.66822624206542969e+00,9.32418346405029297e+00,5.77457351684570312e+01,2.06056900024414062e+01,3.24112968444824219e+01,1.07240259647369385e+00,5.56179275512695312e+01,1.16167373657226562e+01,3.47180519104003906e+01,2.29083061218261719e+00,1.72361445426940918e+00,3.02633786201477051e+00,6.57104444503784180e+00,2.75313949584960938e+00,4.68728027343750000e+01,1.08729324340820312e+01,4.07633209228515625e+01,1.48546037673950195e+01,5.60109472274780273e+00,6.01564311981201172e+00,2.62894039154052734e+01,8.42864894866943359e+00,1.27406692504882812e+00,1.01676380634307861e+00,1.80936586856842041e+00,1.21697211265563965e+00,4.34917306900024414e+00,2.22187137603759766e+00,1.45878422260284424e+00,1.29435527324676514e+00,3.81658439636230469e+01,8.70695686340332031e+00,3.52768325805664062e+01,5.48648929595947266e+00,1.13143796920776367e+01,3.54022407531738281e+00,1.44911253452301025e+00,4.15198230743408203e+00,3.17376089096069336e+00,2.84188199043273926e+00,2.26460647583007812e+01,3.64334011077880859e+00,5.69085359573364258e+00,2.73779511451721191e+00,3.14230079650878906e+01,6.74283695220947266e+00,1.11130070686340332e+00,4.37518882751464844e+00,1.52272949218750000e+01,7.41876935958862305e+00,3.01428246498107910e+00,2.67657113075256348e+00,2.27246627807617188e+01,8.69834613800048828e+00,2.39366388320922852e+00,4.34917306900024414e+00,1.27811555862426758e+01,2.44613909721374512e+00,1.69562625885009766e+00,5.72314310073852539e+00,1.79731035232543945e+00,1.21697211265563965e+00,1.14074497222900391e+01,1.13172121047973633e+01,1.18214333057403564e+00,1.21152055263519287e+00,6.82618522644042969e+00,4.49102735519409180e+00,2.17458653450012207e+00,2.31644082069396973e+00],"tree_param":{"num_deleted":"0","num_feature":"6","num_nodes":"89","size_leaf_vector":"0"}}]},"name":"gbtree"},"learner_model_param":{"base_score":"0.500000","num_class":"0","num_feature":"6"},"objective":{"name":"binary:logistic","reg_loss_param":{"scale_pos_weight":"22.9945698"}}},"version":[1,1,1]}