{"learner":{"attributes":{},"gradient_booster":{"model":{"gbtree_model_param":{"num_trees":"2","size_leaf_vector":"0"},"tree_info":[0,0],"trees":[{"base_weights":[-1.76701819896697998e+00,-1.97350108623504639e+00,1.44274175167083740e+00,-1.99805641174316406e+00,-8.12619864940643311e-01,5.66742062568664551e-01,1.79278767108917236e+00,-1.86666667461395264e+00,9.43550407886505127e-01,-1.60000002384185791e+00,1.17313075065612793e+00,9.43550407886505127e-01,1.94974112510681152e+00,6.62292599678039551e-01,1.73210692405700684e+00],"default_left":[true,true,true,false,true,true,true,false,false,false,true,false,false,false,false],"id":0,"leaf_child_counts":[0,0,0,0,0,0,0,0,0,0,0,0,0,0,0],"left_children":[1,3,5,-1,7,9,11,-1,-1,-1,13,-1,-1,-1,-1],"loss_changes":[1.86062255859375000e+02,7.08728027343750000e+00,4.97351074218750000e+00,0.00000000000000000e+00,1.12995624542236328e+01,7.34460830688476562e+00,1.14822387695312500e+00,0.00000000000000000e+00,0.00000000000000000e+00,0.00000000000000000e+00,9.21879768371582031e-01,0.00000000000000000e+00,0.00000000000000000e+00,0.00000000000000000e+00,0.00000000000000000e+00],"parents":[2147483647,0,0,1,1,2,2,4,4,5,5,6,6,10,10],"right_children":[2,4,6,-1,8,10,12,-1,-1,-1,14,-1,-1,-1,-1],"split_conditions":[4.50000000000000000e+00,5.00000000000000000e-01,2.50000000000000000e+00,-2.99708461761474609e+00,1.25000000000000000e+01,1.15000000000000000e+01,9.50000000000000000e+00,-2.79999995231628418e+00,1.41532564163208008e+00,-2.40000009536743164e+00,1.55000000000000000e+01,1.41532564163208008e+00,2.92461156845092773e+00,9.93438899517059326e-01,2.59816026687622070e+00],"split_indices":[2,3,3,0,0,0,0,0,0,0,0,0,0,0,0],"sum_hessian":[2.79414154052734375e+02,2.62616424560546875e+02,1.67977504730224609e+01,2.57000000000000000e+02,5.61641693115234375e+00,4.98283338546752930e+00,1.18149166107177734e+01,3.50000000000000000e+00,2.11641669273376465e+00,1.00000000000000000e+00,3.98283338546752930e+00,2.11641669273376465e+00,9.69849967956542969e+00,2.36641669273376465e+00,1.61641669273376465e+00],"tree_param":{"num_deleted":"0","num_feature":"6","num_nodes":"15","size_leaf_vector":"0"}},{"base_weights":[-8.90980124473571777e-01,-1.03751075267791748e+00,5.84705829620361328e-01,-1.05872058868408203e+00,-4.77359712123870850e-01,-2.46591746807098389e-01,9.11164402961730957e-01,4.88284945487976074e-01,1.06402468681335449e+00],"default_left":[true,true,true,false,false,false,true,false,false],"id":1,"leaf_child_counts":[0,0,0,0,0,0,0,0,0],"left_children":[1,3,5,-1,-1,-1,7,-1,-1],"loss_changes":[1.19789772033691406e+01,4.65866088867187500e-01,1.44037604331970215e+00,0.00000000000000000e+00,0.00000000000000000e+00,0.00000000000000000e+00,1.10292434692382812e-01,0.00000000000000000e+00,0.00000000000000000e+00],"parents":[2147483647,0,0,1,1,2,2,6,6],"right_children":[2,4,6,-1,-1,-1,8,-1,-1],"split_conditions":[1.50000000000000000e+00,5.00000000000000000e-01,9.50000000000000000e+00,-1.58808088302612305e+00,-7.16039538383483887e-01,-3.69887620210647583e-01,1.15000000000000000e+01,7.32427418231964111e-01,1.59603703022003174e+00],"split_indices":[3,3,0,0,0,0,0,0,0],"sum_hessian":[5.44470672607421875e+01,4.95965309143066406e+01,4.85053443908691406e+00,4.75727043151855469e+01,2.02382969856262207e+00,1.38497674465179443e+00,3.46555781364440918e+00,1.19851469993591309e+00,2.26704311370849609e+00],"tree_param":{"num_deleted":"0","num_feature":"6","num_nodes":"9","size_leaf_vector":"0"}}]},"name":"gbtree"},"learner_model_param":{"base_score":"0.500000","num_class":"0","num_feature":"6"},"objective":{"name":"binary:logistic","reg_loss_param":{"scale_pos_weight":"6.46566677"}}},"version":[1,1,1]}